{
    "learning-rate": 0.3,
    "error-max": 0.5,
    "layers": [
        [
            {
                "bias": -2.1417,
                "weights": [
                    0.8043,
                    -2.3529,
                    3.2042999999999995,
                    1.4904000000000002,
                    0.0492,
                    0.5904,
                    0.0246,
                    0.7257,
                    0.25830000000000003,
                    0.2706,
                    1.2177,
                    0.7503,
                    0.6273,
                    0.6765,
                    0.3444,
                    0.7626000000000001,
                    0.2214,
                    0.1353,
                    0.5781000000000001,
                    0.5781000000000001,
                    0.7872,
                    0.7503,
                    1.107,
                    0.6396000000000001,
                    0.4551,
                    1.0209,
                    0.1722,
                    1.2177,
                    0.1107,
                    0.1107,
                    0.8487,
                    0.8856,
                    0.0123,
                    1.1562000000000001,
                    0.6765,
                    0.8733,
                    0.123,
                    0.3321,
                    0.1722,
                    0.3567,
                    0.738,
                    0.9102,
                    1.107,
                    0.9594,
                    0.5658,
                    0.7257,
                    0.9225,
                    1.1193,
                    0.9348,
                    1.0578
                ]
            },
            {
                "bias": 0.5091,
                "weights": [
                    -1.1016000000000001,
                    1.407,
                    -3.3191999999999995,
                    0.06420000000000003,
                    0.8118,
                    0.3936,
                    0.246,
                    0.9471,
                    0.8487,
                    0.2091,
                    0.6642,
                    0.4551,
                    0.6273,
                    0.5043,
                    1.2177,
                    0.4797,
                    0.246,
                    1.1316,
                    0.6027,
                    0.2829,
                    0.4551,
                    0.0123,
                    0.7011000000000001,
                    1.0701,
                    0.2214,
                    0.0738,
                    0.2829,
                    0.3567,
                    0.0615,
                    0.0369,
                    0.2337,
                    0.6396000000000001,
                    0.6642,
                    0.1353,
                    0.4305,
                    0.4305,
                    1.0086,
                    1.1685,
                    0.4551,
                    1.1685,
                    0.6888,
                    0.123,
                    0.0861,
                    0.9471,
                    0.1353,
                    1.0824,
                    0.5658,
                    0.2337,
                    0.1845,
                    0.8856
                ]
            },
            {
                "bias": 0.7674000000000001,
                "weights": [
                    -1.8342,
                    -3.7769999999999992,
                    -1.0743,
                    1.8888,
                    0.3321,
                    0.3444,
                    1.0824,
                    1.1931,
                    0.0615,
                    0.5289,
                    0.5289,
                    0.3444,
                    0.5289,
                    0.4059,
                    0.3444,
                    0.9963,
                    0.4551,
                    0.8364,
                    1.2177,
                    0.4797,
                    0.0738,
                    0.9348,
                    0.4428,
                    0.3936,
                    0.9594,
                    0.7749,
                    0.5412,
                    0.6273,
                    0.9717,
                    0.5658,
                    0.5043,
                    1.0209,
                    0.2091,
                    1.23,
                    1.0332000000000001,
                    1.1808,
                    0.7749,
                    0.6027,
                    0.9225,
                    1.1808,
                    1.0209,
                    1.107,
                    0.2952,
                    0.1476,
                    1.0701,
                    1.2054,
                    0.15990000000000001,
                    0.5781000000000001,
                    0.5904,
                    0.3075
                ]
            },
            {
                "bias": 1.7289,
                "weights": [
                    2.7348,
                    3.0320999999999994,
                    1.5518999999999998,
                    -2.4957,
                    0.4182,
                    0.1968,
                    0.38130000000000003,
                    0.8733,
                    1.23,
                    0.15990000000000001,
                    0.7995,
                    0.7626000000000001,
                    1.2054,
                    0.123,
                    0.0246,
                    0.615,
                    1.23,
                    0.9471,
                    0.984,
                    0.9717,
                    0.6888,
                    1.0701,
                    0.2952,
                    1.1439,
                    0.4674,
                    0.8118,
                    0.9348,
                    0.1845,
                    0.5658,
                    0.5904,
                    0.2214,
                    0.31980000000000003,
                    0.3936,
                    0.7626000000000001,
                    0.4674,
                    0.8241,
                    1.1193,
                    0.3567,
                    0.6765,
                    0.1476,
                    0.5043,
                    0.5904,
                    0.2829,
                    0.3936,
                    0.0984,
                    0.7872,
                    0.3075,
                    0.1968,
                    0.5043,
                    0.0492
                ]
            },
            {
                "bias": 0.029999999999999916,
                "weights": [
                    -1.8807000000000003,
                    -1.0155,
                    -4.290899999999999,
                    0.861,
                    0.615,
                    0.8733,
                    1.0701,
                    0.5781000000000001,
                    1.23,
                    0.1722,
                    0.3567,
                    0.0615,
                    0.8979,
                    0.0123,
                    1.0455,
                    0.9471,
                    0.7872,
                    1.0824,
                    0.0861,
                    0.6396000000000001,
                    0.9348,
                    1.0455,
                    0.7257,
                    1.23,
                    1.107,
                    1.0947,
                    0.2091,
                    0.0861,
                    0.7626000000000001,
                    1.2054,
                    0.4797,
                    0.0123,
                    0.9594,
                    0.9225,
                    0.9717,
                    0.6396000000000001,
                    1.1562000000000001,
                    0.6027,
                    0.738,
                    0.5412,
                    0.2337,
                    0.25830000000000003,
                    1.1685,
                    0.7749,
                    0.2091,
                    0.0738,
                    0.1353,
                    0.4059,
                    0.3444,
                    0.8856
                ]
            }
        ],
        [
            {
                "bias": -1.362,
                "weights": [
                    -1.4946000000000002,
                    3.0839999999999996,
                    -1.3128,
                    1.7904000000000002,
                    0.7059
                ]
            },
            {
                "bias": -1.9053000000000002,
                "weights": [
                    -1.2588,
                    1.5519,
                    2.9657999999999993,
                    -2.5250999999999997,
                    3.597899999999999
                ]
            },
            {
                "bias": -2.1390000000000002,
                "weights": [
                    0.16260000000000008,
                    2.2824,
                    2.8577999999999997,
                    -3.678599999999999,
                    3.893099999999999
                ]
            },
            {
                "bias": 0.8241,
                "weights": [
                    3.7700999999999993,
                    -2.6357999999999997,
                    2.9069999999999996,
                    -1.9647000000000001,
                    -2.7095999999999996
                ]
            },
            {
                "bias": -0.14489999999999997,
                "weights": [
                    -2.2941000000000003,
                    3.951899999999999,
                    2.346,
                    -1.0524,
                    3.755099999999999
                ]
            }
        ],
        [
            {
                "bias": -0.20160000000000006,
                "weights": [
                    -2.1417,
                    1.5273,
                    3.0026999999999995,
                    1.7781000000000002,
                    -2.5572
                ]
            },
            {
                "bias": -0.18179999999999996,
                "weights": [
                    -2.0187,
                    -3.1031999999999997,
                    -3.1667999999999994,
                    3.5069999999999992,
                    -3.543299999999999
                ]
            },
            {
                "bias": 0.9102000000000001,
                "weights": [
                    -1.1946,
                    -1.1112,
                    -1.5663,
                    3.5069999999999992,
                    -1.7481
                ]
            },
            {
                "bias": 2.3685,
                "weights": [
                    0.3888,
                    -2.6727,
                    -3.9833999999999987,
                    -1.2909,
                    -1.5834
                ]
            },
            {
                "bias": -4.413899999999999,
                "weights": [
                    -3.2822999999999993,
                    -3.2822999999999993,
                    -4.217099999999999,
                    -4.020299999999999,
                    -3.2945999999999995
                ]
            },
            {
                "bias": -3.5774999999999992,
                "weights": [
                    -3.4175999999999993,
                    -4.352399999999999,
                    -3.934199999999999,
                    -3.3191999999999995,
                    -4.217099999999999
                ]
            },
            {
                "bias": -3.4421999999999993,
                "weights": [
                    -4.401599999999999,
                    -3.4913999999999996,
                    -3.4421999999999993,
                    -3.7496999999999994,
                    -3.2822999999999993
                ]
            },
            {
                "bias": -3.626699999999999,
                "weights": [
                    -3.4175999999999993,
                    -3.602099999999999,
                    -3.3560999999999996,
                    -4.020299999999999,
                    -4.020299999999999
                ]
            },
            {
                "bias": -3.811199999999999,
                "weights": [
                    -4.057199999999999,
                    -3.872699999999999,
                    -3.589799999999999,
                    -3.4790999999999994,
                    -4.278599999999999
                ]
            },
            {
                "bias": -3.626699999999999,
                "weights": [
                    -3.4052999999999995,
                    -3.5036999999999994,
                    -3.4298999999999995,
                    -3.5036999999999994,
                    -4.155599999999999
                ]
            }
        ]
    ]
}