{
    "learning-rate": 0.3,
    "error-max": 0.5,
    "layers": [
        [
            {
                "bias": -1.7802,
                "weights": [
                    2.2824,
                    -1.6203,
                    3.1229999999999993,
                    -0.516,
                    1.2054,
                    0.7872,
                    0.7995,
                    0.5658,
                    0.6519,
                    0.492,
                    1.1193,
                    0.4674,
                    0.8241,
                    0.8487,
                    0.9594,
                    0.861,
                    0.246,
                    0.1476,
                    0.2706,
                    0.2706,
                    0.3444,
                    0.369,
                    0.9717,
                    0.9348,
                    1.2054,
                    0.6765,
                    0.9471,
                    0.2952,
                    0.8241,
                    1.2177,
                    0.1107,
                    1.1808,
                    0.8856,
                    0.0246,
                    0.15990000000000001,
                    0.8487,
                    0.123,
                    0.8487,
                    0.38130000000000003,
                    1.0332000000000001,
                    0.1845,
                    0.2091,
                    0.7503,
                    1.0455,
                    0.2337,
                    1.0455,
                    1.2054,
                    0.5412,
                    0.1476,
                    0.5043
                ]
            },
            {
                "bias": -0.516,
                "weights": [
                    0.9348000000000001,
                    -3.5261999999999993,
                    2.8701,
                    0.12300000000000005,
                    0.984,
                    1.1808,
                    1.1562000000000001,
                    0.38130000000000003,
                    1.0947,
                    0.0369,
                    0.5166000000000001,
                    0.7995,
                    1.23,
                    1.0578,
                    0.492,
                    0.7626000000000001,
                    0.7872,
                    0.5535,
                    0.1107,
                    0.6273,
                    0.7749,
                    0.0984,
                    0.4674,
                    0.7995,
                    0.15990000000000001,
                    0.3075,
                    0.3444,
                    0.9594,
                    1.0332000000000001,
                    0.3075,
                    1.2177,
                    1.1562000000000001,
                    1.2054,
                    0.8733,
                    1.0947,
                    0.5781000000000001,
                    0.3444,
                    0.8733,
                    0.4674,
                    0.38130000000000003,
                    0.9717,
                    0.6027,
                    0.9594,
                    0.4305,
                    1.1193,
                    0.9594,
                    0.4674,
                    0.38130000000000003,
                    0.2214,
                    0.246
                ]
            },
            {
                "bias": 0.4824,
                "weights": [
                    -0.39089999999999997,
                    1.4583000000000002,
                    -2.7417,
                    -0.4695,
                    0.6273,
                    0.246,
                    1.23,
                    0.0246,
                    0.7011000000000001,
                    0.0984,
                    0.31980000000000003,
                    0.5166000000000001,
                    1.0332000000000001,
                    0.3936,
                    0.123,
                    0.38130000000000003,
                    0.492,
                    0.5904,
                    1.0701,
                    0.25830000000000003,
                    0.1722,
                    0.3567,
                    1.1931,
                    1.1439,
                    1.1316,
                    0.5904,
                    0.6519,
                    1.0086,
                    0.9102,
                    0.8487,
                    0.4797,
                    0.2952,
                    0.1845,
                    0.7626000000000001,
                    0.5412,
                    0.9225,
                    0.3444,
                    0.9717,
                    1.2177,
                    1.0824,
                    0.8733,
                    0.9471,
                    0.5781000000000001,
                    0.9348,
                    0.7872,
                    0.0615,
                    0.7134,
                    0.31980000000000003,
                    0.4305,
                    0.1353
                ]
            },
            {
                "bias": -0.17699999999999994,
                "weights": [
                    2.2578,
                    3.1256999999999997,
                    -1.4651999999999998,
                    -1.4481,
                    0.9963,
                    1.23,
                    1.0947,
                    0.4428,
                    0.6642,
                    0.1107,
                    0.8241,
                    1.23,
                    0.4674,
                    0.9717,
                    0.2214,
                    0.6888,
                    0.5535,
                    1.1439,
                    1.107,
                    0.5781000000000001,
                    0.3567,
                    0.8733,
                    0.8118,
                    0.5166000000000001,
                    0.3075,
                    0.2091,
                    0.1845,
                    0.7749,
                    0.6888,
                    0.2952,
                    0.6642,
                    0.0369,
                    0.6642,
                    0.3444,
                    0.0738,
                    0.4305,
                    0.6027,
                    0.984,
                    0.7503,
                    0.8487,
                    0.0984,
                    0.984,
                    0.7995,
                    0.6642,
                    1.1685,
                    0.5166000000000001,
                    1.0947,
                    1.0086,
                    0.3321,
                    0.0861
                ]
            },
            {
                "bias": 0.792,
                "weights": [
                    -2.6630999999999996,
                    -1.9449,
                    -2.8127999999999997,
                    1.9209,
                    0.5412,
                    0.9102,
                    0.7626000000000001,
                    0.5904,
                    0.0738,
                    0.4428,
                    0.3444,
                    0.38130000000000003,
                    1.0701,
                    0.8979,
                    0.5412,
                    0.2952,
                    0.2337,
                    0.3567,
                    1.0824,
                    0.0123,
                    0.3075,
                    0.4428,
                    0.6273,
                    0.0246,
                    0.0615,
                    0.2337,
                    1.2054,
                    0.38130000000000003,
                    0.5043,
                    0.246,
                    0.8733,
                    0.7872,
                    0.4551,
                    0.0123,
                    0.246,
                    0.4059,
                    1.2054,
                    0.5781000000000001,
                    0.6027,
                    0.9963,
                    0.5289,
                    0.3444,
                    0.861,
                    0.8733,
                    0.9717,
                    0.9102,
                    1.0701,
                    0.3567,
                    1.1931,
                    0.9225
                ]
            }
        ],
        [
            {
                "bias": -1.0866,
                "weights": [
                    -1.8048000000000002,
                    0.49679999999999996,
                    0.38399999999999995,
                    -1.9524000000000001,
                    3.2240999999999995
                ]
            },
            {
                "bias": -0.9390000000000001,
                "weights": [
                    0.7257,
                    -1.3401,
                    1.5963,
                    2.6315999999999997,
                    -2.9753999999999996
                ]
            },
            {
                "bias": 0.08879999999999999,
                "weights": [
                    2.8871999999999995,
                    3.219299999999999,
                    -2.1048,
                    -2.8032,
                    -0.6785999999999999
                ]
            },
            {
                "bias": 0.09360000000000002,
                "weights": [
                    -2.3678999999999997,
                    -1.3989,
                    2.3411999999999997,
                    2.9192999999999993,
                    2.4102
                ]
            },
            {
                "bias": -0.6684000000000001,
                "weights": [
                    -2.8892999999999995,
                    -1.5711,
                    2.1075,
                    -2.9234999999999993,
                    2.4396
                ]
            }
        ],
        [
            {
                "bias": 0.35190000000000005,
                "weights": [
                    1.9134000000000002,
                    -2.9630999999999994,
                    2.346,
                    -3.2753999999999994,
                    3.605399999999999
                ]
            },
            {
                "bias": -0.12780000000000002,
                "weights": [
                    -2.2449,
                    -1.3695,
                    3.0839999999999996,
                    -2.9849999999999994,
                    -2.9111999999999996
                ]
            },
            {
                "bias": 2.0733,
                "weights": [
                    -0.4299,
                    -0.6807000000000001,
                    2.3438999999999997,
                    -2.4785999999999997,
                    -3.1031999999999997
                ]
            },
            {
                "bias": 1.2054,
                "weights": [
                    -2.5032,
                    2.2749,
                    -0.6294,
                    -2.0604,
                    -1.5267000000000002
                ]
            },
            {
                "bias": -3.4646999999999992,
                "weights": [
                    -3.3908999999999994,
                    -2.8619999999999997,
                    -2.4684,
                    -2.4069,
                    -2.7882
                ]
            },
            {
                "bias": -3.1079999999999997,
                "weights": [
                    -3.5753999999999992,
                    -3.4523999999999995,
                    -3.353999999999999,
                    -2.5422,
                    -2.5545
                ]
            },
            {
                "bias": -3.4031999999999996,
                "weights": [
                    -2.6159999999999997,
                    -3.2801999999999993,
                    -3.378599999999999,
                    -3.538499999999999,
                    -3.0095999999999994
                ]
            },
            {
                "bias": -3.538499999999999,
                "weights": [
                    -2.5176,
                    -3.0710999999999995,
                    -3.2801999999999993,
                    -2.8373999999999997,
                    -2.5667999999999997
                ]
            },
            {
                "bias": -3.243299999999999,
                "weights": [
                    -3.1694999999999993,
                    -3.513899999999999,
                    -3.267899999999999,
                    -2.4561,
                    -3.4154999999999993
                ]
            },
            {
                "bias": -3.0464999999999995,
                "weights": [
                    -3.5507999999999993,
                    -3.2063999999999995,
                    -3.2309999999999994,
                    -3.4769999999999994,
                    -2.5545
                ]
            }
        ]
    ]
}