{
    "learning-rate": 0.3,
    "error-max": 0.5,
    "layers": [
        [
            {
                "bias": -1.2069,
                "weights": [
                    1.6086,
                    -0.7127999999999999,
                    7.793099999999997,
                    -1.3449,
                    1.1808,
                    0.9102,
                    0.0984,
                    0.615,
                    0.5289,
                    0.5289,
                    0.6765,
                    0.492,
                    1.2177,
                    1.2054,
                    0.6888,
                    0.1968,
                    1.1931,
                    0.5412,
                    0.246,
                    0.5043,
                    0.5412,
                    1.1931,
                    1.1316,
                    0.861,
                    1.23,
                    0.5289,
                    1.1808,
                    0.861,
                    0.9717,
                    1.0086,
                    0.861,
                    0.9102,
                    0.8364,
                    1.1685,
                    0.4305,
                    0.1722,
                    0.9102,
                    0.0492,
                    1.0824,
                    0.3444,
                    0.7995,
                    0.4797,
                    0.6888,
                    0.0246,
                    1.1808,
                    0.738,
                    0.123,
                    0.38130000000000003,
                    1.0824,
                    1.107,
                    1.0701,
                    0.6642,
                    0.8487,
                    0.0246,
                    1.0947,
                    0.7134,
                    0.7134,
                    0.38130000000000003,
                    0.4059,
                    0.9225,
                    0.1968,
                    1.1562000000000001,
                    0.0615,
                    0.2337,
                    0.1845,
                    0.5658,
                    0.6027,
                    0.1476,
                    1.1685,
                    0.4674,
                    0.7995,
                    0.6765,
                    0.25830000000000003,
                    0.6396000000000001,
                    0.5904,
                    0.1353,
                    1.2054,
                    0.5904,
                    1.2054,
                    0.4551,
                    0.4182,
                    0.1845,
                    0.6519,
                    1.0455,
                    0.6027,
                    1.2054,
                    0.1107,
                    0.7134,
                    0.5289,
                    0.9348,
                    0.4305,
                    0.0861,
                    0.7995,
                    0.2337,
                    0.9594,
                    0.3075,
                    0.5658,
                    0.0738,
                    0.8856,
                    0.9348,
                    0.1476,
                    0.0492,
                    0.6642,
                    0.3444,
                    0.5535,
                    0.2214,
                    0.3567,
                    0.9963,
                    0.6765,
                    0.4305,
                    1.2177,
                    1.1931,
                    0.861,
                    0.8487,
                    0.7626000000000001,
                    0.4674,
                    1.0701,
                    1.0824,
                    1.0947,
                    0.2706,
                    0.8118,
                    0.8856,
                    0.8979,
                    0.1107,
                    1.0086,
                    1.0824,
                    0.6273,
                    0.5166000000000001,
                    0.246,
                    1.2054,
                    0.246,
                    0.7872,
                    0.3567,
                    0.4797,
                    0.9348,
                    1.1439,
                    0.25830000000000003,
                    0.5781000000000001,
                    0.0123,
                    1.1439,
                    0.6273,
                    0.9102,
                    0.738,
                    0.2091,
                    0.5412,
                    0.2091,
                    0.492,
                    0.9594,
                    0.7626000000000001,
                    0.8118,
                    0.0738,
                    1.0701,
                    0.2091,
                    0.1845,
                    0.3075,
                    0.1476,
                    0.3567,
                    0.492,
                    0.123,
                    1.23,
                    0.8979,
                    0.5535,
                    0.5043,
                    0.6273,
                    0.6642,
                    0.7749,
                    0.0123,
                    0.5535,
                    0.5658,
                    0.2952,
                    0.2091,
                    0.9225,
                    0.5166000000000001,
                    0.1353,
                    1.1439,
                    0.3444,
                    0.1968,
                    0.492,
                    0.1968,
                    0.7134,
                    0.6273,
                    0.1968,
                    0.7872,
                    0.4305,
                    0.8241,
                    0.9594,
                    0.0984,
                    0.246,
                    0.15990000000000001,
                    0.9102,
                    0.5535,
                    0.615,
                    0.7626000000000001,
                    1.0824,
                    0.5412,
                    0.9717,
                    0.246,
                    1.0701,
                    1.1439,
                    0.9717,
                    0.4305,
                    0.369,
                    0.8241,
                    0.9717,
                    0.4428,
                    1.1931,
                    0.246,
                    0.8733,
                    1.1685,
                    1.2054,
                    0.6396000000000001,
                    0.7011000000000001,
                    1.1439,
                    0.615,
                    0.2952,
                    0.2091,
                    1.2054,
                    0.7503,
                    0.123,
                    1.107,
                    1.0947,
                    0.369,
                    0.2091,
                    0.0861,
                    0.25830000000000003,
                    0.984,
                    0.8733,
                    0.5412,
                    0.5289,
                    1.0947,
                    0.3444,
                    0.1476,
                    1.1193,
                    0.4305,
                    0.31980000000000003,
                    0.8364,
                    0.5412,
                    1.0578,
                    1.1193,
                    0.4182,
                    0.738,
                    0.615,
                    0.9471,
                    0.1845,
                    0.2952,
                    0.7626000000000001,
                    0.25830000000000003,
                    0.1476,
                    0.6519,
                    0.0246,
                    0.8856,
                    0.1353,
                    0.9963,
                    1.1808,
                    1.107,
                    1.0332000000000001
                ]
            }
        ],
        [
            {
                "bias": 0.8043,
                "weights": [
                    -6.781799999999998
                ]
            },
            {
                "bias": 0.4503,
                "weights": [
                    -5.1785999999999985
                ]
            },
            {
                "bias": -0.6416999999999999,
                "weights": [
                    4.296299999999999
                ]
            },
            {
                "bias": -1.0572000000000001,
                "weights": [
                    4.913399999999998
                ]
            },
            {
                "bias": 0.5289,
                "weights": [
                    -3.3416999999999994
                ]
            }
        ],
        [
            {
                "bias": 2.3487,
                "weights": [
                    -5.827799999999998,
                    -4.612799999999999,
                    6.602699999999998,
                    3.7502999999999993,
                    -5.507999999999998
                ]
            },
            {
                "bias": 0.16260000000000008,
                "weights": [
                    3.0368999999999997,
                    3.4994999999999994,
                    -2.8004999999999995,
                    -1.3032000000000001,
                    4.571699999999999
                ]
            },
            {
                "bias": -0.6464999999999999,
                "weights": [
                    -3.3806999999999996,
                    -4.472699999999999,
                    4.608599999999999,
                    -1.1283,
                    -4.698899999999999
                ]
            },
            {
                "bias": -2.4882,
                "weights": [
                    5.287199999999999,
                    3.647099999999999,
                    -5.544899999999998,
                    -0.8973,
                    5.481299999999998
                ]
            },
            {
                "bias": -4.214399999999999,
                "weights": [
                    -6.403199999999998,
                    -6.550799999999998,
                    5.139599999999999,
                    0.6321,
                    -6.088199999999998
                ]
            }
        ],
        [
            {
                "bias": -1.6032000000000002,
                "weights": [
                    -3.887699999999999,
                    1.5765,
                    5.006999999999999,
                    4.001099999999999,
                    5.3561999999999985
                ]
            },
            {
                "bias": -3.892499999999999,
                "weights": [
                    -0.7004999999999999,
                    -6.806399999999997,
                    5.294699999999999,
                    -6.587699999999997,
                    6.882899999999998
                ]
            },
            {
                "bias": -1.0497,
                "weights": [
                    1.0947,
                    0.8979000000000001,
                    -1.0914000000000001,
                    -1.5096,
                    3.605399999999999
                ]
            },
            {
                "bias": 0.4059,
                "weights": [
                    1.3626,
                    -5.480699999999999,
                    5.095199999999998,
                    -6.201599999999998,
                    7.633199999999997
                ]
            },
            {
                "bias": -7.332599999999998,
                "weights": [
                    -6.265199999999997,
                    -6.769499999999997,
                    -6.437399999999998,
                    -6.383399999999997,
                    -6.432599999999998
                ]
            },
            {
                "bias": -7.344899999999997,
                "weights": [
                    -6.597299999999998,
                    -6.031499999999998,
                    -6.075899999999998,
                    -6.2849999999999975,
                    -6.395699999999998
                ]
            },
            {
                "bias": -6.897299999999998,
                "weights": [
                    -7.290899999999997,
                    -6.604799999999997,
                    -6.137399999999998,
                    -5.756099999999998,
                    -6.071099999999998
                ]
            },
            {
                "bias": -7.027799999999997,
                "weights": [
                    -6.966299999999998,
                    -6.481799999999998,
                    -5.652899999999998,
                    -6.230999999999998,
                    -5.714399999999998
                ]
            },
            {
                "bias": -6.306899999999998,
                "weights": [
                    -7.290899999999997,
                    -6.4865999999999975,
                    -6.7079999999999975,
                    -5.903699999999998,
                    -6.690899999999997
                ]
            },
            {
                "bias": -6.466799999999997,
                "weights": [
                    -6.8432999999999975,
                    -6.966299999999998,
                    -6.031499999999998,
                    -6.567899999999997,
                    -6.100499999999998
                ]
            },
            {
                "bias": -6.744899999999998,
                "weights": [
                    -6.437399999999998,
                    -6.634199999999997,
                    -6.6218999999999975,
                    -6.457199999999998,
                    -6.358799999999998
                ]
            },
            {
                "bias": -6.6881999999999975,
                "weights": [
                    -7.438499999999997,
                    -5.780699999999999,
                    -5.915999999999998,
                    -6.137399999999998,
                    -6.703199999999998
                ]
            },
            {
                "bias": -7.450799999999997,
                "weights": [
                    -6.769499999999997,
                    -6.4202999999999975,
                    -6.248099999999997,
                    -5.640599999999998,
                    -5.4068999999999985
                ]
            },
            {
                "bias": -7.5170999999999975,
                "weights": [
                    -6.117599999999998,
                    -6.179099999999998,
                    -6.560399999999998,
                    -6.149699999999998,
                    -5.842199999999998
                ]
            },
            {
                "bias": -7.037399999999997,
                "weights": [
                    -6.835799999999997,
                    -6.043799999999998,
                    -6.757199999999997,
                    -6.068399999999998,
                    -5.891399999999998
                ]
            },
            {
                "bias": -7.426199999999997,
                "weights": [
                    -6.609599999999998,
                    -6.125099999999998,
                    -5.731499999999998,
                    -6.1694999999999975,
                    -5.640599999999998
                ]
            }
        ]
    ]
}