{
    "learning-rate": 0.1,
    "error-max": 0.02,
    "layers": [
        [
            {
                "bias": 0.1551,
                "weights": [
                    -1.7679000000000005,
                    0.5871999999999999,
                    -7.871099999999989,
                    1.3722,
                    0.4182,
                    1.1808,
                    1.2177,
                    0.5043,
                    0.615,
                    0.8856,
                    0.5412,
                    0.6396000000000001,
                    0.0123,
                    1.2054,
                    0.25830000000000003,
                    0.8979
                ]
            }
        ],
        [
            {
                "bias": -0.7897999999999998,
                "weights": [
                    -1.1219
                ]
            },
            {
                "bias": -1.2973000000000001,
                "weights": [
                    2.8706000000000014
                ]
            },
            {
                "bias": 0.5348,
                "weights": [
                    -1.7139000000000006
                ]
            },
            {
                "bias": -1.6358000000000004,
                "weights": [
                    2.9562000000000017
                ]
            },
            {
                "bias": -1.4278000000000004,
                "weights": [
                    3.2931000000000017
                ]
            }
        ],
        [
            {
                "bias": -1.3631000000000002,
                "weights": [
                    -2.463100000000001,
                    2.590400000000001,
                    -2.313900000000001,
                    3.0150000000000015,
                    2.1476000000000006
                ]
            },
            {
                "bias": 6.181299999999995,
                "weights": [
                    6.701099999999993,
                    6.113399999999995,
                    6.750299999999993,
                    5.556699999999997,
                    6.147099999999995
                ]
            },
            {
                "bias": 0.0642000000000002,
                "weights": [
                    2.7610000000000015,
                    -2.1283000000000007,
                    2.358300000000001,
                    -2.9770000000000016,
                    -1.5112000000000003
                ]
            },
            {
                "bias": -0.693,
                "weights": [
                    -1.3882,
                    2.230500000000001,
                    -1.6160000000000003,
                    3.7257000000000025,
                    2.4396000000000013
                ]
            },
            {
                "bias": 1.0562,
                "weights": [
                    2.556700000000001,
                    -1.9941000000000009,
                    2.3722000000000008,
                    -2.220300000000001,
                    -1.7139000000000006
                ]
            }
        ],
        [
            {
                "bias": -2.0438000000000005,
                "weights": [
                    4.6246,
                    -3.734200000000002,
                    -5.092999999999999,
                    2.476500000000001,
                    -5.544899999999997
                ]
            },
            {
                "bias": -1.2524000000000002,
                "weights": [
                    5.896299999999996,
                    -0.2834,
                    -3.412800000000002,
                    3.0300000000000016,
                    -2.7294000000000014
                ]
            },
            {
                "bias": -0.40159999999999996,
                "weights": [
                    3.8214000000000024,
                    -0.41870000000000007,
                    -4.3679000000000014,
                    3.311800000000002,
                    -2.631000000000001
                ]
            },
            {
                "bias": -2.127800000000001,
                "weights": [
                    2.8246000000000016,
                    -2.1893000000000007,
                    -2.2818000000000005,
                    2.036400000000001,
                    -3.0818000000000016
                ]
            },
            {
                "bias": -3.314400000000002,
                "weights": [
                    6.114999999999995,
                    -3.9069000000000025,
                    -6.907999999999992,
                    3.1230000000000016,
                    -6.465199999999994
                ]
            }
        ],
        [
            {
                "bias": -1.1946,
                "weights": [
                    8.605399999999987,
                    8.03959999999999,
                    4.8839999999999995,
                    8.614999999999986,
                    8.527299999999986
                ]
            },
            {
                "bias": -5.501599999999997,
                "weights": [
                    5.476499999999997,
                    4.6749,
                    4.425700000000001,
                    5.937999999999995,
                    6.899499999999993
                ]
            },
            {
                "bias": 1.8209000000000004,
                "weights": [
                    -6.480199999999994,
                    -6.4726999999999935,
                    -5.977499999999996,
                    -6.200499999999995,
                    -5.869999999999996
                ]
            },
            {
                "bias": -4.7032,
                "weights": [
                    4.947099999999999,
                    0.9198000000000001,
                    0.7444000000000001,
                    5.685599999999996,
                    4.7273
                ]
            },
            {
                "bias": -0.8293999999999998,
                "weights": [
                    -3.215500000000002,
                    1.5246000000000004,
                    1.6070000000000002,
                    -1.0667999999999997,
                    -6.687699999999993
                ]
            }
        ],
        [
            {
                "bias": 2.1733000000000007,
                "weights": [
                    -2.9294000000000016,
                    -1.4540000000000002,
                    4.134800000000002,
                    5.856699999999996,
                    -5.446499999999998
                ]
            },
            {
                "bias": 0.13529999999999986,
                "weights": [
                    -2.6267000000000014,
                    -6.463599999999993,
                    5.5090999999999966,
                    -7.052399999999992,
                    -2.0374000000000008
                ]
            },
            {
                "bias": -0.28230000000000005,
                "weights": [
                    -2.320300000000001,
                    1.7369000000000006,
                    2.8348000000000013,
                    -2.860400000000001,
                    4.225700000000002
                ]
            },
            {
                "bias": 1.2717000000000003,
                "weights": [
                    0.05780000000000024,
                    -6.717099999999992,
                    6.401099999999994,
                    -6.958799999999992,
                    2.8305000000000016
                ]
            },
            {
                "bias": -7.643799999999989,
                "weights": [
                    -8.178599999999989,
                    -5.004799999999999,
                    -7.55719999999999,
                    -4.2299000000000015,
                    -6.148099999999995
                ]
            },
            {
                "bias": -8.009599999999988,
                "weights": [
                    -8.017099999999989,
                    -4.6572000000000005,
                    -7.3218999999999905,
                    -4.7417,
                    -6.135799999999994
                ]
            },
            {
                "bias": -8.232599999999987,
                "weights": [
                    -7.941699999999988,
                    -4.6112,
                    -7.34489999999999,
                    -4.117600000000002,
                    -5.656099999999997
                ]
            },
            {
                "bias": -8.321899999999987,
                "weights": [
                    -7.182299999999992,
                    -4.577500000000001,
                    -7.4849999999999905,
                    -5.415499999999997,
                    -6.329899999999994
                ]
            },
            {
                "bias": -7.869999999999989,
                "weights": [
                    -7.752899999999989,
                    -5.394099999999998,
                    -7.47749999999999,
                    -5.049699999999999,
                    -6.514399999999993
                ]
            },
            {
                "bias": -8.097299999999988,
                "weights": [
                    -7.995699999999989,
                    -4.6128,
                    -6.7314999999999925,
                    -4.129900000000002,
                    -7.138499999999992
                ]
            },
            {
                "bias": -8.415499999999987,
                "weights": [
                    -7.846499999999989,
                    -4.323500000000001,
                    -6.838999999999992,
                    -4.114400000000002,
                    -6.490899999999994
                ]
            },
            {
                "bias": -8.157199999999989,
                "weights": [
                    -7.9694999999999885,
                    -4.6112,
                    -7.161999999999991,
                    -4.595700000000001,
                    -6.514399999999993
                ]
            },
            {
                "bias": -7.52829999999999,
                "weights": [
                    -7.966299999999989,
                    -4.855599999999999,
                    -7.66629999999999,
                    -4.193000000000002,
                    -6.592499999999993
                ]
            },
            {
                "bias": -7.50369999999999,
                "weights": [
                    -8.053999999999988,
                    -4.516,
                    -7.857199999999989,
                    -4.890899999999999,
                    -6.279099999999994
                ]
            },
            {
                "bias": -8.284999999999988,
                "weights": [
                    -7.643799999999989,
                    -5.155599999999998,
                    -7.068399999999992,
                    -4.156100000000002,
                    -6.468399999999994
                ]
            },
            {
                "bias": -7.805299999999988,
                "weights": [
                    -8.021899999999988,
                    -5.317099999999997,
                    -7.40209999999999,
                    -4.042200000000002,
                    -6.603699999999993
                ]
            }
        ]
    ]
}