{
    "learning-rate": 0.1,
    "error-max": 0.02,
    "layers": [
        [
            {
                "bias": 0.21819999999999998,
                "weights": [
                    1.1444,
                    6.7737999999999925,
                    -7.0790999999999915,
                    -0.7175999999999999,
                    0.3567,
                    1.0086,
                    0.3936,
                    1.0086,
                    0.5535,
                    0.2091,
                    0.0984,
                    0.984,
                    0.6519,
                    0.0738,
                    0.9594,
                    1.0578
                ]
            }
        ],
        [
            {
                "bias": -0.16630000000000003,
                "weights": [
                    -2.780200000000001
                ]
            },
            {
                "bias": 1.0551,
                "weights": [
                    -1.3262000000000003
                ]
            },
            {
                "bias": -1.2668,
                "weights": [
                    2.379700000000001
                ]
            },
            {
                "bias": -1.1032,
                "weights": [
                    2.5471000000000013
                ]
            },
            {
                "bias": -1.3636000000000001,
                "weights": [
                    1.7353000000000005
                ]
            }
        ],
        [
            {
                "bias": -2.244900000000001,
                "weights": [
                    -2.641700000000001,
                    -1.7251000000000005,
                    1.7230000000000005,
                    2.7995000000000014,
                    1.9316000000000006
                ]
            },
            {
                "bias": -1.4695000000000003,
                "weights": [
                    -2.5957000000000012,
                    -1.0234999999999999,
                    3.9781000000000026,
                    2.8733000000000013,
                    0.9614999999999999
                ]
            },
            {
                "bias": 5.207499999999998,
                "weights": [
                    5.072199999999999,
                    5.564199999999997,
                    6.051899999999995,
                    7.076499999999991,
                    6.1208999999999945
                ]
            },
            {
                "bias": -1.5545000000000002,
                "weights": [
                    -4.223500000000001,
                    -2.101600000000001,
                    1.8578000000000006,
                    2.9209000000000014,
                    1.1824000000000001
                ]
            },
            {
                "bias": 5.345499999999998,
                "weights": [
                    4.816599999999999,
                    5.382399999999998,
                    5.714999999999996,
                    6.482399999999994,
                    5.585599999999997
                ]
            }
        ],
        [
            {
                "bias": -3.427800000000002,
                "weights": [
                    5.088799999999999,
                    2.270600000000001,
                    -2.1914000000000007,
                    3.9738000000000024,
                    -1.8278000000000008
                ]
            },
            {
                "bias": -0.3267000000000001,
                "weights": [
                    5.232099999999998,
                    7.168499999999991,
                    -3.1064000000000016,
                    6.764199999999993,
                    -1.0652
                ]
            },
            {
                "bias": 2.342800000000001,
                "weights": [
                    -3.1299000000000015,
                    -2.0529000000000006,
                    2.393100000000001,
                    -3.1818000000000017,
                    1.0305
                ]
            },
            {
                "bias": -1.0914,
                "weights": [
                    5.521399999999997,
                    5.968999999999996,
                    -2.426700000000001,
                    7.168499999999991,
                    -1.9786000000000008
                ]
            },
            {
                "bias": -2.7620000000000013,
                "weights": [
                    3.368500000000002,
                    2.9118000000000017,
                    -1.8668000000000005,
                    2.8353000000000015,
                    -1.3144
                ]
            }
        ],
        [
            {
                "bias": -1.8481000000000007,
                "weights": [
                    6.305399999999994,
                    4.982399999999999,
                    -2.043300000000001,
                    4.351900000000001,
                    5.676499999999996
                ]
            },
            {
                "bias": -4.7924999999999995,
                "weights": [
                    6.207499999999994,
                    1.8487000000000005,
                    -4.934199999999999,
                    5.0684999999999985,
                    6.319299999999994
                ]
            },
            {
                "bias": -0.5278000000000002,
                "weights": [
                    -5.925099999999995,
                    -5.6127999999999965,
                    5.479699999999998,
                    -6.007999999999996,
                    -5.697299999999997
                ]
            },
            {
                "bias": -5.040099999999999,
                "weights": [
                    6.278099999999995,
                    -1.7144000000000004,
                    -6.587699999999994,
                    1.2888000000000002,
                    5.759399999999997
                ]
            },
            {
                "bias": -1.7508000000000004,
                "weights": [
                    6.0609999999999955,
                    -0.25399999999999995,
                    -5.638499999999997,
                    2.096800000000001,
                    4.865799999999999
                ]
            }
        ],
        [
            {
                "bias": 3.9273000000000025,
                "weights": [
                    1.6225000000000005,
                    -6.017099999999995,
                    6.308599999999994,
                    -6.118699999999995,
                    -6.267899999999995
                ]
            },
            {
                "bias": -1.1267,
                "weights": [
                    -2.6898000000000013,
                    -5.592999999999997,
                    5.1732999999999985,
                    -6.875399999999992,
                    -5.656099999999997
                ]
            },
            {
                "bias": 0.1396000000000001,
                "weights": [
                    -3.008000000000002,
                    3.194700000000002,
                    3.2952000000000017,
                    -3.1898000000000017,
                    2.9193000000000016
                ]
            },
            {
                "bias": -0.8651999999999999,
                "weights": [
                    -3.0770000000000017,
                    -2.0374000000000008,
                    4.837999999999999,
                    5.087199999999998,
                    3.8931000000000022
                ]
            },
            {
                "bias": -8.490899999999987,
                "weights": [
                    -7.59299999999999,
                    -7.789799999999989,
                    -7.740599999999989,
                    -6.734199999999992,
                    -7.49459999999999
                ]
            },
            {
                "bias": -7.838999999999989,
                "weights": [
                    -8.306399999999988,
                    -8.355599999999987,
                    -7.986599999999989,
                    -5.829899999999996,
                    -8.306399999999988
                ]
            },
            {
                "bias": -8.306399999999988,
                "weights": [
                    -8.171099999999988,
                    -7.949699999999988,
                    -7.875899999999989,
                    -5.937399999999996,
                    -8.675399999999986
                ]
            },
            {
                "bias": -7.838999999999989,
                "weights": [
                    -8.392499999999988,
                    -8.576999999999988,
                    -8.060399999999989,
                    -6.846499999999993,
                    -8.097299999999988
                ]
            },
            {
                "bias": -7.543799999999989,
                "weights": [
                    -7.961999999999988,
                    -8.121899999999988,
                    -8.417099999999987,
                    -6.343799999999994,
                    -8.675399999999986
                ]
            },
            {
                "bias": -8.072699999999989,
                "weights": [
                    -8.244899999999987,
                    -7.642199999999989,
                    -7.55609999999999,
                    -6.582299999999994,
                    -8.515499999999987
                ]
            },
            {
                "bias": -7.789799999999989,
                "weights": [
                    -7.50689999999999,
                    -8.072699999999989,
                    -7.46999999999999,
                    -7.57109999999999,
                    -7.679099999999989
                ]
            },
            {
                "bias": -7.912799999999988,
                "weights": [
                    -8.146499999999989,
                    -7.49459999999999,
                    -7.6298999999999895,
                    -6.292999999999995,
                    -7.9004999999999885
                ]
            },
            {
                "bias": -8.294099999999988,
                "weights": [
                    -8.183399999999988,
                    -8.269499999999988,
                    -7.863599999999988,
                    -5.588199999999997,
                    -7.937399999999989
                ]
            },
            {
                "bias": -8.343299999999987,
                "weights": [
                    -8.417099999999987,
                    -7.912799999999988,
                    -8.306399999999988,
                    -5.797299999999996,
                    -8.192499999999988
                ]
            },
            {
                "bias": -8.515499999999987,
                "weights": [
                    -8.466299999999988,
                    -8.011199999999988,
                    -7.679099999999989,
                    -6.030999999999995,
                    -7.738999999999989
                ]
            },
            {
                "bias": -7.59299999999999,
                "weights": [
                    -8.478599999999988,
                    -8.453999999999986,
                    -8.281799999999988,
                    -6.595699999999994,
                    -8.134199999999987
                ]
            }
        ]
    ]
}