{
    "learning-rate": 0.01,
    "error-max": 5,
    "layers": [
        [
            {
                "bias": -0.26010000000000005,
                "weights": [
                    0.0719999999999997,
                    0.41639999999999966,
                    -0.33390000000000014,
                    0.42869999999999964,
                    -0.4154000000000002,
                    0.7238999999999995,
                    0.6746999999999996,
                    -0.2109000000000001,
                    -0.06330000000000018,
                    0.3917999999999996,
                    0.6500999999999997,
                    0.1457999999999996,
                    0.8099999999999996,
                    0.32259999999999966,
                    0.1722,
                    0.738
                ]
            },
            {
                "bias": 0.3229,
                "weights": [
                    1.0732000000000002,
                    0.5074,
                    0.28600000000000003,
                    0.39670000000000005,
                    0.22450000000000003,
                    0.23680000000000004,
                    0.5443,
                    0.48280000000000006,
                    1.1593,
                    1.0732000000000002,
                    1.0363,
                    0.5689000000000001,
                    1.1593,
                    0.7288,
                    0.7503,
                    0.2214
                ]
            }
        ],
        [
            {
                "bias": 0.5563999999999998,
                "weights": [
                    0.2488999999999998,
                    0.5071999999999998
                ]
            },
            {
                "bias": -0.07239999999999999,
                "weights": [
                    0.9115999999999997,
                    0.7885999999999997
                ]
            },
            {
                "bias": 0.5286999999999997,
                "weights": [
                    0.4179999999999997,
                    -0.09860000000000001
                ]
            },
            {
                "bias": 0.7100999999999997,
                "weights": [
                    0.5378999999999997,
                    -0.33540000000000014
                ]
            },
            {
                "bias": 1.107,
                "weights": [
                    0.5658,
                    0.15990000000000001
                ]
            },
            {
                "bias": 0.2657999999999997,
                "weights": [
                    -0.09090000000000004,
                    0.019799999999999887
                ]
            },
            {
                "bias": -0.6354000000000004,
                "weights": [
                    0.5330999999999995,
                    -0.4509000000000003
                ]
            },
            {
                "bias": 0.20889999999999975,
                "weights": [
                    0.6885999999999997,
                    0.0735999999999998
                ]
            },
            {
                "bias": 0.2070999999999994,
                "weights": [
                    0.10869999999999938,
                    -0.5309000000000004
                ]
            },
            {
                "bias": 0.22249999999999936,
                "weights": [
                    -0.10960000000000034,
                    -0.13420000000000037
                ]
            }
        ],
        [
            {
                "bias": 0.7746999999999997,
                "weights": [
                    0.3564999999999997,
                    -0.2954000000000001,
                    -0.012500000000000145,
                    -0.12320000000000002,
                    0.8361999999999998,
                    0.7377999999999998,
                    0.4794999999999997,
                    0.7254999999999998,
                    -0.2831000000000001,
                    0.8607999999999998
                ]
            },
            {
                "bias": 0.12099999999999934,
                "weights": [
                    0.08409999999999947,
                    -0.6047000000000003,
                    -0.2726000000000004,
                    0.1455999999999994,
                    -0.6170000000000003,
                    -0.4325000000000004,
                    0.034899999999999494,
                    -0.3095000000000004,
                    -0.1742000000000004,
                    -0.6662000000000005
                ]
            },
            {
                "bias": 0.5531999999999997,
                "weights": [
                    -0.11100000000000018,
                    -0.33240000000000014,
                    0.7130999999999996,
                    0.4178999999999996,
                    -0.3939000000000002,
                    0.19649999999999956,
                    0.33179999999999954,
                    0.03659999999999974,
                    0.6515999999999995,
                    0.25799999999999956
                ]
            },
            {
                "bias": 0.30249999999999944,
                "weights": [
                    0.16719999999999946,
                    -0.5954000000000004,
                    0.3885999999999994,
                    -0.10340000000000026,
                    0.35169999999999946,
                    0.5730999999999995,
                    0.24099999999999944,
                    -0.34940000000000027,
                    -0.16490000000000027,
                    0.4500999999999995
                ]
            },
            {
                "bias": -0.47850000000000026,
                "weights": [
                    -0.18330000000000019,
                    0.43169999999999953,
                    0.023499999999999646,
                    0.5154999999999996,
                    -0.07490000000000027,
                    -0.3209000000000002,
                    -0.10950000000000024,
                    0.6876999999999995,
                    0.4639999999999995,
                    -0.025700000000000334
                ]
            },
            {
                "bias": -0.6662000000000005,
                "weights": [
                    -0.38330000000000036,
                    -0.32180000000000036,
                    -0.0020000000000005326,
                    -0.5432000000000003,
                    -0.44480000000000036,
                    -0.6170000000000003,
                    0.29319999999999946,
                    -0.5309000000000004,
                    0.09639999999999942,
                    -0.026600000000000457
                ]
            },
            {
                "bias": 0.2070999999999994,
                "weights": [
                    -0.5432000000000003,
                    -0.2480000000000004,
                    -0.0881000000000004,
                    -0.2726000000000004,
                    -0.5063000000000003,
                    -0.6170000000000003,
                    0.24399999999999933,
                    0.2685999999999993,
                    0.41619999999999946,
                    0.30549999999999944
                ]
            },
            {
                "bias": 0.11059999999999989,
                "weights": [
                    0.8362999999999998,
                    0.5656999999999999,
                    0.9223999999999999,
                    0.4918999999999999,
                    0.13519999999999988,
                    0.23359999999999986,
                    0.33199999999999985,
                    -0.09850000000000002,
                    0.44269999999999987,
                    0.8362999999999998
                ]
            },
            {
                "bias": 0.34239999999999937,
                "weights": [
                    0.034899999999999494,
                    -0.014300000000000502,
                    -0.32180000000000036,
                    -0.038900000000000434,
                    -0.42020000000000035,
                    -0.10040000000000036,
                    -0.13730000000000037,
                    -0.6539000000000004,
                    0.41619999999999946,
                    0.24399999999999933
                ]
            },
            {
                "bias": 0.8807999999999998,
                "weights": [
                    0.3149999999999997,
                    -0.21620000000000006,
                    0.5486999999999997,
                    0.8807999999999998,
                    0.3887999999999997,
                    0.019799999999999887,
                    0.6716999999999997,
                    -0.1155,
                    0.5117999999999997,
                    0.36419999999999975
                ]
            }
        ],
        [
            {
                "bias": -0.14960000000000034,
                "weights": [
                    0.4899999999999993,
                    0.4407999999999994,
                    0.21939999999999937,
                    -0.1250000000000004,
                    -0.11270000000000044,
                    0.40389999999999926,
                    0.034899999999999494,
                    -0.7154000000000005,
                    0.12099999999999934,
                    -0.0881000000000004
                ]
            },
            {
                "bias": -0.2480000000000004,
                "weights": [
                    -0.038900000000000434,
                    -0.6539000000000004,
                    -0.1250000000000004,
                    -0.0020000000000005326,
                    0.24399999999999933,
                    -0.5309000000000004,
                    0.15789999999999937,
                    -0.4694000000000004,
                    0.29319999999999946,
                    -0.2357000000000004
                ]
            },
            {
                "bias": -0.4325000000000004,
                "weights": [
                    -0.5555000000000003,
                    -0.3956000000000004,
                    -0.6662000000000005,
                    0.46539999999999937,
                    -0.07580000000000044,
                    -0.44480000000000036,
                    -0.1250000000000004,
                    -0.038900000000000434,
                    0.47769999999999935,
                    -0.38330000000000036
                ]
            },
            {
                "bias": -0.4325000000000004,
                "weights": [
                    -0.6047000000000003,
                    0.05949999999999942,
                    -0.2849000000000004,
                    -0.19880000000000037,
                    -0.7031000000000004,
                    -0.014300000000000502,
                    0.3669999999999993,
                    -0.2726000000000004,
                    0.1947999999999993,
                    -0.1865000000000004
                ]
            }
        ]
    ]
}